[array([[[[-0.03048623, -0.06736686, -0.02887711, ..., -0.02799914,
           -0.0633299 ,  0.07687653],
          [-0.07727362, -0.04139888, -0.06747209, ...,  0.00953059,
           -0.08567566, -0.00572814],
          [-0.03739366, -0.06547042,  0.02237204, ..., -0.0796643 ,
           -0.06117222,  0.0178015 ]],
 
         [[-0.01562566, -0.04164384, -0.07426731, ..., -0.02740698,
           -0.00261881, -0.01879746],
          [-0.0807768 ,  0.01340769, -0.06681877, ..., -0.03208892,
           -0.09508786, -0.06312788],
          [-0.0165824 ,  0.02502359,  0.04370588, ...,  0.00631749,
           -0.04446022,  0.04394792]],
 
         [[ 0.00053235, -0.04666829, -0.05485948, ..., -0.0575808 ,
           -0.08873474, -0.02191578],
          [ 0.01170407,  0.05022798, -0.05756246, ..., -0.03429212,
           -0.08827578,  0.01205327],
          [-0.0440826 ,  0.02322   , -0.06684605, ..., -0.09706822,
            0.01476847, -0.04335523]],
 
         [[-0.04549547, -0.01962585,  0.01311645, ..., -0.02179362,
           -0.04134552, -0.04598454],
          [ 0.00823625,  0.02953526,  0.03104666, ...,  0.00100991,
            0.04080167, -0.05856665],
          [-0.04038317,  0.02012734,  0.02489718, ..., -0.03893453,
           -0.00843092,  0.01427117]],
 
         [[-0.01612118,  0.02776294, -0.04821922, ...,  0.03891709,
            0.01988986, -0.05997686],
          [-0.0618172 , -0.03619419,  0.01148355, ..., -0.00288949,
            0.0091345 ,  0.00187843],
          [-0.06266458,  0.02019913, -0.02584571, ...,  0.01272169,
            0.0662577 , -0.0598046 ]]],
 
 
        [[[-0.07745068, -0.03503708, -0.03995011, ..., -0.07682092,
           -0.07356072,  0.06882467],
          [-0.04364556, -0.04392859,  0.00884204, ..., -0.02789429,
           -0.03975923,  0.00035713],
          [-0.07443124, -0.06487196, -0.06241915, ..., -0.0143814 ,
           -0.04950034, -0.02197365]],
 
         [[ 0.0238434 ,  0.03183541,  0.04510552, ..., -0.09124724,
           -0.00784639, -0.04142195],
          [-0.0637148 ,  0.00525031, -0.06846387, ..., -0.0141643 ,
           -0.09778908, -0.03718897],
          [ 0.03144604, -0.00015902,  0.04420423, ..., -0.07857814,
            0.00931124, -0.04363567]],
 
         [[-0.02412761, -0.03411832, -0.0041552 , ...,  0.00977899,
            0.00485957,  0.00136781],
          [-0.0705265 ,  0.00986684, -0.01971266, ..., -0.03096727,
           -0.05478011,  0.03137423],
          [-0.07649469,  0.0322917 ,  0.03117537, ..., -0.08192393,
           -0.05635051, -0.00549197]],
 
         [[-0.05317142,  0.00225146,  0.00372881, ..., -0.04354272,
           -0.01025688, -0.01555652],
          [-0.02961769, -0.02086309, -0.03262008, ..., -0.00609367,
            0.00923434, -0.03206102],
          [-0.01209781,  0.05309563,  0.02918654, ..., -0.04683575,
            0.06355747, -0.00219694]],
 
         [[ 0.04701868,  0.0073595 ,  0.026852  , ...,  0.00914655,
           -0.00212229, -0.0454548 ],
          [ 0.00185115, -0.01369061,  0.05154016, ..., -0.02057524,
            0.03922358, -0.07282964],
          [ 0.06082833, -0.01138373,  0.04375213, ...,  0.06056457,
            0.01528763,  0.0413135 ]]],
 
 
        [[[-0.01073784,  0.04300404,  0.02640455, ..., -0.03110927,
           -0.00484361,  0.03102721],
          [-0.01060058,  0.01145682, -0.04017639, ..., -0.03510761,
           -0.02537348,  0.08851471],
          [-0.06344309,  0.03644646, -0.05505269, ...,  0.00807186,
           -0.09591338,  0.05724457]],
 
         [[-0.02358999, -0.01137151, -0.05531036, ..., -0.0611929 ,
           -0.08535133, -0.02144695],
          [ 0.03697844, -0.05844852,  0.03677124, ..., -0.07401254,
           -0.02848491,  0.0559957 ],
          [ 0.03505239, -0.02237053,  0.00936129, ..., -0.03079261,
           -0.05905398,  0.07223243]],
 
         [[-0.04020163,  0.01618494,  0.04266629, ..., -0.01575029,
            0.01616653, -0.02731919],
          [-0.04258291, -0.03260629,  0.04558845, ..., -0.06030958,
            0.03779208, -0.02270472],
          [ 0.00089181,  0.02478188, -0.05274123, ...,  0.04119681,
            0.02586477, -0.02171108]],
 
         [[ 0.05770987,  0.05683938,  0.04270907, ...,  0.00442737,
            0.05783916, -0.03338202],
          [-0.00025959,  0.05109596, -0.06315432, ..., -0.01746057,
            0.0874836 ,  0.0405683 ],
          [ 0.05344484,  0.01554098, -0.05181614, ...,  0.07833789,
            0.04035233,  0.01521689]],
 
         [[ 0.05947088,  0.00883664, -0.03981974, ...,  0.00216219,
            0.0066868 , -0.05407618],
          [ 0.01333393,  0.01780348, -0.01897424, ...,  0.09070978,
            0.02775502, -0.01284751],
          [ 0.00238176,  0.03501948,  0.03107693, ...,  0.06104627,
            0.11010724, -0.02040431]]],
 
 
        [[[-0.00144149, -0.02504161, -0.00061559, ..., -0.0657884 ,
           -0.02822451,  0.08830842],
          [ 0.00357986,  0.0528771 , -0.06334549, ..., -0.01437174,
           -0.02039552,  0.09235026],
          [-0.03717899, -0.04646986,  0.00424454, ...,  0.00412683,
           -0.04460189,  0.0056332 ]],
 
         [[-0.06540248,  0.02108524, -0.05215691, ...,  0.04456119,
           -0.00365173, -0.00774758],
          [ 0.04749029, -0.05746372, -0.00683275, ..., -0.02476757,
           -0.03302361,  0.04757166],
          [-0.04900604, -0.02645149,  0.01801989, ..., -0.03301228,
            0.01687554,  0.0737388 ]],
 
         [[ 0.03086914, -0.03212183,  0.01012022, ..., -0.0032092 ,
            0.07791083,  0.04438179],
          [-0.01378553,  0.03241924,  0.03703058, ..., -0.00813825,
            0.01848917, -0.00043488],
          [ 0.05015277, -0.04666501, -0.04061247, ..., -0.00239991,
            0.0255237 ,  0.02691633]],
 
         [[-0.01255577,  0.03490539, -0.02489877, ...,  0.04982347,
            0.06994069, -0.04147204],
          [ 0.00996116, -0.005692  , -0.03579824, ...,  0.07632691,
            0.08890381,  0.02040091],
          [-0.0439028 ,  0.06939363,  0.05429177, ...,  0.08754689,
            0.1041481 , -0.0349933 ]],
 
         [[-0.0244147 , -0.01075754,  0.03360933, ...,  0.10100535,
            0.09689294, -0.05777742],
          [-0.00447304,  0.06360152, -0.03679765, ...,  0.1135181 ,
            0.00074165,  0.01689873],
          [ 0.06700438, -0.02829777, -0.02235703, ...,  0.09620844,
            0.09136944, -0.02695872]]],
 
 
        [[[ 0.05543616, -0.02172577,  0.02597106, ...,  0.00512389,
           -0.09119922,  0.06024836],
          [-0.00707462, -0.05456009,  0.03230457, ..., -0.02495397,
           -0.05853131, -0.01721746],
          [ 0.02411292, -0.03483731, -0.06136099, ...,  0.00392167,
           -0.02561955,  0.00271582]],
 
         [[-0.00950785, -0.01766568, -0.04541901, ...,  0.0465762 ,
           -0.0318024 ,  0.06804679],
          [-0.02998677,  0.00738985,  0.01027384, ..., -0.00855104,
           -0.00377893, -0.01945587],
          [ 0.05572968,  0.04414102, -0.00400925, ...,  0.02266368,
           -0.05345452,  0.01386804]],
 
         [[ 0.04078225, -0.01040394, -0.05553607, ..., -0.01418148,
            0.07212228, -0.03147901],
          [-0.03592135, -0.00219321, -0.00725971, ...,  0.09312431,
            0.06726726, -0.04006947],
          [-0.02266352, -0.00196988, -0.03302012, ...,  0.01478138,
            0.03357557, -0.02372003]],
 
         [[ 0.04306803, -0.03627064,  0.01773894, ...,  0.11105982,
            0.09626141,  0.03218318],
          [ 0.05780803, -0.02010134,  0.01652985, ...,  0.08623167,
            0.11068225, -0.00401894],
          [ 0.06408159,  0.01492166,  0.05548006, ...,  0.02695925,
            0.00400561, -0.01724322]],
 
         [[ 0.03261643,  0.03657655, -0.00120807, ...,  0.05927989,
            0.01971303, -0.06697021],
          [ 0.00065845, -0.03763217,  0.05391564, ...,  0.00413547,
            0.09619882, -0.03597647],
          [ 0.02127332,  0.00413902,  0.04573408, ...,  0.01220152,
            0.09468035, -0.02640043]]]], dtype=float32),
 array([ 0.03853557,  0.05602399,  0.033229  , -0.07746974,  0.03715956,
        -0.02328307,  0.03661499, -0.04465568, -0.00356452,  0.02798626,
        -0.0224121 ,  0.02726967, -0.06676833,  0.02789295, -0.02249243,
        -0.05286051, -0.00398375, -0.00817002, -0.06199594, -0.03961532,
        -0.06473464,  0.04693444, -0.03070901,  0.03545315, -0.09263878,
        -0.06757075, -0.03386512, -0.09102827, -0.09334717, -0.03466354,
         0.00172874, -0.00239733,  0.03938199, -0.0385546 ,  0.04483562,
        -0.09249344, -0.02819247,  0.03352833, -0.05213684,  0.05235529,
        -0.08122437, -0.07076343,  0.00669637, -0.0674969 ,  0.01761574,
        -0.06852239, -0.02887981,  0.03547559, -0.03267455, -0.06257453,
         0.0197705 ,  0.03891106, -0.00386362, -0.06225801,  0.03623693,
        -0.02894193,  0.04555567,  0.05780984, -0.08802884, -0.03500671,
        -0.06781008, -0.04151364, -0.08741721,  0.01359371], dtype=float32),
 array([[[[-1.30274892e-02,  4.43577766e-02, -1.50161097e-02, ...,
           -3.41517967e-03,  5.32662012e-02, -3.29241753e-02],
          [-2.76110191e-02, -3.51347681e-03, -9.74478014e-03, ...,
           -1.18162595e-02,  9.05138254e-02,  3.64273489e-02],
          [ 6.41386665e-04,  1.42152337e-02,  7.34033249e-03, ...,
            3.29345986e-02,  2.49809064e-02,  4.45849225e-02],
          ...,
          [ 1.17138922e-02,  4.08144817e-02,  6.65462166e-02, ...,
            3.70374285e-02,  2.68499702e-02,  1.97929535e-02],
          [-1.44372247e-02,  1.73970368e-02,  6.52010068e-02, ...,
            8.39821715e-03,  2.66666841e-02, -3.47887650e-02],
          [-1.86973512e-02, -1.62138827e-02, -5.29933572e-02, ...,
            2.27521192e-02,  1.17415413e-02,  1.34467464e-02]],
 
         [[ 4.99728695e-03,  9.79873072e-03, -2.38698088e-02, ...,
           -3.56367528e-02,  1.02037653e-01, -6.75125746e-03],
          [-2.52743457e-02,  3.23380381e-02, -4.03881334e-02, ...,
           -3.91522124e-02, -1.14719700e-02, -1.62547398e-02],
          [-3.56145948e-03,  1.55886337e-02,  6.88522682e-03, ...,
            2.42525749e-02,  6.58104941e-02, -3.51029821e-02],
          ...,
          [-7.00871721e-02, -2.25906372e-02,  6.21434338e-02, ...,
           -2.96003725e-02,  7.47663826e-02,  2.21416019e-02],
          [-5.69754839e-02, -2.99755316e-02,  8.53017941e-02, ...,
           -2.58278716e-02,  6.40446246e-02,  3.34036388e-02],
          [ 1.75537579e-02, -6.26472458e-02,  4.50754911e-02, ...,
            2.52275113e-02,  8.32935795e-02, -3.15977186e-02]],
 
         [[-7.21919537e-03,  5.72777987e-02,  5.10656275e-02, ...,
           -8.48249421e-02,  2.56474060e-03, -9.13000293e-03],
          [-1.60441361e-02,  4.03664149e-02, -4.87879068e-02, ...,
           -6.18209541e-02,  3.59491631e-02,  2.85548083e-02],
          [-1.92964952e-02,  3.24225947e-02,  4.94675599e-02, ...,
           -3.46785337e-02,  3.26290727e-02,  4.48180828e-03],
          ...,
          [ 6.49396214e-04,  7.36294538e-02,  7.16348588e-02, ...,
           -3.20102125e-02,  7.77608752e-02, -2.60248836e-02],
          [-5.82642853e-02,  2.48439424e-03,  6.39456138e-02, ...,
           -4.82936017e-02, -2.06773803e-02,  1.81343611e-02],
          [-4.57167104e-02, -5.93213849e-02, -3.02509293e-02, ...,
            1.18478145e-02,  4.76846509e-02,  5.78360260e-03]],
 
         [[-2.96419561e-02,  3.86874415e-02, -8.18761997e-03, ...,
           -5.02095595e-02,  5.59814274e-02,  1.20263966e-02],
          [-2.57455111e-02,  2.62298733e-02, -9.19221193e-02, ...,
           -9.47914422e-02, -6.78397808e-03,  2.29198933e-02],
          [ 3.54454666e-02,  1.22628668e-02, -1.09093701e-02, ...,
           -1.88285094e-02,  6.70557749e-03,  2.08100937e-02],
          ...,
          [ 2.86360830e-02,  1.08373478e-01,  2.22764240e-04, ...,
            1.50959222e-02, -2.26751212e-02,  2.52116844e-02],
          [-1.85539704e-02,  2.35821363e-02,  4.47392985e-02, ...,
           -4.73802760e-02, -4.22811024e-02,  1.07698934e-02],
          [-3.32571454e-02, -6.20733537e-02, -1.27750896e-02, ...,
            1.99116208e-02,  1.91332009e-02,  1.71920285e-02]],
 
         [[-1.65599585e-02,  2.05095969e-02, -4.73217443e-02, ...,
           -4.46160398e-02, -2.78675146e-02,  2.11921316e-02],
          [ 2.35432256e-02, -3.81643474e-02, -1.04688086e-01, ...,
           -1.87849551e-02, -1.49497464e-02,  1.81563795e-02],
          [ 2.28727935e-03,  2.60021724e-02, -6.43009990e-02, ...,
           -3.56512628e-02,  2.86247693e-02, -3.98763567e-02],
          ...,
          [ 2.22201776e-02,  7.06333071e-02,  8.79652053e-03, ...,
           -2.13934705e-02, -8.08430016e-02,  3.76672298e-02],
          [ 3.01401393e-04,  9.56612919e-03,  3.80649492e-02, ...,
           -4.33737487e-02, -7.01219589e-02, -2.31990255e-02],
          [ 3.90385613e-02, -2.11471021e-02, -9.85824130e-03, ...,
            1.70022752e-02,  3.93316746e-02,  1.75304543e-02]]],
 
 
        [[[ 5.13012037e-02,  8.55364054e-02, -7.74767669e-03, ...,
           -2.52766088e-02,  4.73876484e-02, -2.96194069e-02],
          [-4.47792262e-02, -1.31159555e-02, -4.63427044e-03, ...,
            1.55035630e-02,  5.55261634e-02, -3.71261537e-02],
          [ 2.56333724e-02, -9.54723358e-03,  1.52112972e-02, ...,
           -2.08111983e-02,  1.04157358e-01,  3.33691165e-02],
          ...,
          [ 3.11076716e-02, -3.61361466e-02,  6.20437860e-02, ...,
            5.68184704e-02,  9.10823271e-02,  3.04286983e-02],
          [-4.48677167e-02,  2.95848981e-03,  6.06688932e-02, ...,
           -2.46814918e-03,  5.96088134e-02, -4.57353145e-02],
          [ 2.65117940e-02,  1.84778590e-02, -5.11969626e-02, ...,
            5.44199124e-02, -2.71480698e-02, -1.95238572e-02]],
 
         [[ 1.43149011e-02, -3.24523970e-02,  1.94625705e-02, ...,
           -9.65331122e-03,  7.17409700e-03, -3.42003480e-02],
          [ 1.30642904e-02,  1.85272414e-02, -2.48968950e-03, ...,
           -1.56899472e-03, -3.26423021e-03, -4.39252555e-02],
          [ 6.19888045e-02,  5.15518188e-02, -1.11972159e-02, ...,
            1.18951360e-02, -4.05829959e-02, -1.04476642e-02],
          ...,
          [-4.47980245e-04, -4.46035154e-02,  4.58850376e-02, ...,
           -1.33136185e-04, -1.74657581e-03, -2.37006322e-02],
          [ 2.54238788e-02,  2.44669034e-03,  8.32421705e-02, ...,
           -5.43296989e-03, -4.33803210e-03,  1.96101498e-02],
          [ 7.01869279e-02, -2.88632698e-02, -3.57561596e-02, ...,
            7.62916058e-02,  5.06203808e-02, -2.88254265e-02]],
 
         [[ 2.79140268e-02,  7.55874887e-02,  1.53201679e-02, ...,
           -9.03528463e-03, -2.71386653e-02,  1.10869510e-02],
          [ 4.12077531e-02,  1.53520470e-02, -3.82112302e-02, ...,
           -7.03212619e-02,  1.65230967e-03, -4.63034436e-02],
          [ 7.97240287e-02,  2.67574228e-02, -1.73764639e-02, ...,
           -7.03252777e-02,  3.91510278e-02, -4.81238849e-02],
          ...,
          [ 9.01032612e-03,  3.44251543e-02,  5.93841411e-02, ...,
           -3.59233376e-03, -3.97195555e-02,  2.36330088e-02],
          [-2.80851163e-02,  4.63770740e-02,  7.16139227e-02, ...,
           -1.01646632e-02, -5.43106869e-02, -1.98120847e-02],
          [ 2.91311182e-02, -7.50735924e-02, -8.38242918e-02, ...,
            3.68393818e-03,  6.96550533e-02, -3.08191516e-02]],
 
         [[ 6.01276122e-02,  1.29268661e-01, -3.57848369e-02, ...,
            2.51169899e-03, -7.20816478e-03, -4.69327159e-02],
          [ 1.54373627e-02,  3.47638726e-02, -1.06638588e-01, ...,
           -9.36918482e-02,  3.86616662e-02,  3.74463722e-02],
          [ 5.74654527e-02,  6.03124835e-02, -9.20582004e-03, ...,
           -3.32134515e-02, -9.57371294e-03, -2.77851988e-02],
          ...,
          [ 3.46928202e-02,  8.44736695e-02, -1.36369495e-02, ...,
           -4.69501652e-02, -2.66618654e-02,  4.26442251e-02],
          [-2.86583938e-02,  2.60935649e-02, -1.75420567e-02, ...,
           -2.99224313e-02, -6.07375354e-02,  1.00773470e-02],
          [ 5.42917512e-02, -5.38002290e-02,  6.07804814e-03, ...,
            2.91606225e-03,  5.04268473e-03, -1.72008015e-03]],
 
         [[ 7.68419951e-02,  6.81125447e-02,  1.70307029e-02, ...,
           -7.12300837e-02, -8.72643199e-03,  4.81147738e-03],
          [ 6.46208301e-02, -4.20857519e-02, -4.18204628e-02, ...,
           -7.72456974e-02,  3.68993357e-02, -3.64017412e-02],
          [ 4.74159569e-02, -2.56282790e-03, -5.67800812e-02, ...,
           -9.54907481e-03, -3.23873223e-03, -6.76830905e-03],
          ...,
          [ 4.41663638e-02,  4.46799733e-02,  1.02803214e-02, ...,
           -8.79497603e-02, -3.30259614e-02, -3.37009765e-02],
          [ 5.83037548e-02,  3.36148925e-02, -1.69447751e-03, ...,
           -2.04460770e-02,  7.32245343e-03, -3.08639370e-02],
          [ 8.36697966e-02, -5.61416373e-02, -1.10330442e-02, ...,
            4.03249599e-02,  2.14497112e-02,  1.89712644e-02]]],
 
 
        [[[ 3.32320780e-02,  2.25076210e-02, -2.69379169e-02, ...,
            2.02202220e-02,  8.30227509e-02, -3.61413248e-02],
          [-4.78361025e-02,  7.22152516e-02,  2.39490159e-02, ...,
            1.07234134e-03,  2.22928915e-02, -1.53213041e-02],
          [-3.00098937e-02, -1.11868614e-02, -1.33889997e-02, ...,
            5.17570488e-02,  9.02823731e-02,  4.01850455e-02],
          ...,
          [ 1.11498181e-02, -7.43862242e-02,  7.66224116e-02, ...,
            7.69876465e-02,  1.07316926e-01,  1.11141950e-02],
          [ 2.23113187e-02, -1.79778729e-02,  7.13817105e-02, ...,
            9.18233097e-02,  7.45783150e-02,  1.59132946e-02],
          [-2.32308712e-02, -3.40116844e-02, -2.51666177e-02, ...,
            2.17841435e-02, -1.91652551e-02, -2.13006139e-02]],
 
         [[ 8.44248012e-02,  1.59245953e-02,  1.59817785e-02, ...,
            1.92678254e-02,  1.65608525e-02, -3.12763490e-02],
          [ 3.87922139e-03, -2.92872172e-02,  3.68721448e-02, ...,
           -5.57609349e-02,  2.98761781e-02,  4.16221730e-02],
          [ 1.77157577e-02,  2.36020535e-02,  3.39401588e-02, ...,
            8.88717081e-03,  4.45704497e-02,  4.98958118e-03],
          ...,
          [ 7.64374509e-02, -1.24687087e-02,  3.21178585e-02, ...,
            3.15881930e-02,  3.80981676e-02, -1.19986944e-04],
          [ 6.79247901e-02, -2.43349257e-03,  7.07675293e-02, ...,
            3.14813741e-02,  1.20314341e-02, -1.22176604e-02],
          [ 6.72063464e-03, -6.64835703e-03,  5.27330041e-02, ...,
            6.12246096e-02,  6.53559938e-02, -4.75146621e-02]],
 
         [[ 5.82648404e-02,  9.27317366e-02,  4.07359609e-03, ...,
            1.49080390e-02, -3.92764574e-03, -1.72889978e-03],
          [-1.83594357e-02,  5.19489534e-02, -4.26840084e-03, ...,
           -4.87921387e-02, -4.09082174e-02, -2.94405743e-02],
          [-6.02577580e-03,  4.60105613e-02, -1.27311088e-02, ...,
            3.15723866e-02, -2.99499370e-02,  2.58536055e-03],
          ...,
          [ 4.74716676e-03,  7.63120875e-02,  2.34528575e-02, ...,
           -2.69967988e-02, -8.15399084e-03, -3.16303037e-02],
          [ 7.00754905e-03,  8.16421583e-02,  2.63797194e-02, ...,
           -1.93583183e-02, -3.81413400e-02, -4.51255776e-02],
          [ 3.25141549e-02, -6.99870959e-02, -6.01184666e-02, ...,
            4.47889976e-03,  2.72671413e-02, -1.90633088e-02]],
 
         [[ 6.07226975e-03,  6.63693249e-02, -3.86555567e-02, ...,
            5.11200773e-03,  1.86308927e-03,  3.64352064e-03],
          [ 5.77828921e-02,  1.31499227e-02, -6.97162077e-02, ...,
            8.99393670e-03, -1.14373881e-02, -2.14219727e-02],
          [ 1.40989330e-02,  6.12592250e-02, -1.67861301e-02, ...,
           -1.98134314e-02, -3.57105955e-02,  2.20814929e-03],
          ...,
          [ 6.86061457e-02,  9.02527869e-02, -8.34003557e-03, ...,
           -1.50860120e-02,  1.82642993e-02, -4.64789905e-02],
          [-1.19586112e-02,  9.84032601e-02,  3.48559618e-02, ...,
            1.06756659e-02,  8.63792934e-03,  2.11454276e-02],
          [ 7.06138760e-02, -5.01359366e-02, -3.85029688e-02, ...,
           -2.88108550e-02, -1.92175452e-02, -4.30044532e-03]],
 
         [[ 3.02808881e-02, -2.40887217e-02, -4.97879013e-02, ...,
           -9.89750996e-02,  1.01363659e-02,  1.36377094e-02],
          [ 1.90939428e-03, -5.88723347e-02, -4.26968187e-02, ...,
           -6.10548966e-02,  3.48804407e-02, -3.15068476e-02],
          [ 5.64404614e-02, -1.01439711e-02,  1.18154632e-02, ...,
           -1.22368131e-02,  4.20851493e-03, -2.70065479e-02],
          ...,
          [ 3.39091904e-02, -2.00809222e-02,  1.88487154e-02, ...,
           -3.42585780e-02, -1.92161947e-02,  2.51416545e-02],
          [ 2.06187889e-02,  3.71040851e-02, -2.30440311e-02, ...,
           -5.62349521e-02, -5.94300702e-02,  2.02682931e-02],
          [ 4.05171923e-02,  1.82559062e-02,  3.86231430e-02, ...,
            6.77895695e-02,  3.74709517e-02, -3.65815833e-02]]],
 
 
        [[[-3.25869396e-02,  2.70685237e-02, -1.91959813e-02, ...,
            1.01941071e-01,  2.06299918e-03,  3.33698653e-02],
          [-5.38805351e-02,  1.36824120e-02, -2.21975287e-03, ...,
           -3.08417920e-02,  3.29545215e-02,  9.02098138e-03],
          [-1.01960739e-02,  3.71642853e-03, -1.67308617e-02, ...,
            3.56059521e-02,  5.17703556e-02,  1.78028475e-02],
          ...,
          [ 2.00655479e-02,  1.24611557e-02, -3.83820804e-03, ...,
            3.92248370e-02,  6.49879798e-02, -4.64363433e-02],
          [-1.54161649e-02, -4.19251509e-02,  1.80823933e-02, ...,
            1.03981741e-01,  3.44056375e-02, -4.69587632e-02],
          [-9.22049135e-02,  2.79003661e-02, -7.65818879e-02, ...,
            4.43051234e-02,  5.15475012e-02,  4.08545770e-02]],
 
         [[-9.36749671e-03,  6.10694587e-02, -1.62670389e-02, ...,
            2.20304150e-02, -1.68361876e-03,  1.72725637e-02],
          [-1.21150408e-02, -4.91023026e-02, -7.37775862e-03, ...,
           -8.42340365e-02,  5.98108061e-02, -7.99334794e-03],
          [-4.51047020e-03,  3.89364660e-02,  1.31378500e-02, ...,
           -4.41472083e-02,  3.57073992e-02,  2.60966234e-02],
          ...,
          [ 6.33997843e-02,  9.18880329e-02,  4.07108590e-02, ...,
            5.93902078e-03, -3.20999399e-02, -4.70898487e-02],
          [ 7.82503486e-02, -1.41963772e-02,  6.97697923e-02, ...,
           -1.92801673e-02,  2.27779821e-02, -5.58391027e-03],
          [-5.66866174e-02, -1.72155909e-02, -3.79900634e-02, ...,
           -8.36175494e-03,  7.45954663e-02, -2.83939801e-02]],
 
         [[-2.30370183e-02,  9.14591700e-02, -9.29445922e-02, ...,
           -3.71572636e-02, -5.41995540e-02, -2.04278082e-02],
          [ 3.07136402e-03,  4.35901433e-02, -2.30754595e-02, ...,
           -6.93798736e-02, -2.71231253e-02,  2.23766323e-02],
          [ 5.69759682e-03,  6.67414069e-02, -1.82531830e-02, ...,
           -4.24554572e-02, -1.70728937e-02,  8.60216469e-03],
          ...,
          [ 5.32319658e-02,  1.15204975e-01, -1.85657255e-02, ...,
            2.30918881e-02, -5.15193753e-02,  1.80744901e-02],
          [ 2.31035277e-02,  1.06642231e-01,  1.67909786e-02, ...,
           -1.26829499e-03, -4.02753316e-02, -3.06944717e-02],
          [ 7.67117441e-02, -6.70986399e-02,  2.24138331e-02, ...,
            5.50431535e-02,  3.93967256e-02,  3.04494873e-02]],
 
         [[ 7.10379984e-03, -1.89878307e-02, -1.76856145e-02, ...,
           -3.45801897e-02, -7.91392773e-02, -6.45183865e-03],
          [ 8.18279237e-02,  1.28137143e-02, -2.57166848e-02, ...,
           -7.05722123e-02,  6.52212836e-03,  1.00396527e-02],
          [ 6.95768967e-02, -1.00443186e-02, -4.42347005e-02, ...,
           -6.49235994e-02, -4.64491025e-02, -4.02360456e-03],
          ...,
          [ 1.06342565e-02,  9.62023661e-02, -1.71185713e-02, ...,
           -5.03131896e-02, -2.07272731e-02,  1.46156400e-02],
          [ 5.62398136e-02,  3.10427044e-02,  5.31479865e-02, ...,
           -3.49747799e-02, -1.71426889e-02,  3.77439596e-02],
          [ 7.43053928e-02, -2.19756272e-02,  2.71270406e-02, ...,
            2.10183673e-02,  1.74172614e-02, -2.79902983e-02]],
 
         [[ 3.59610729e-02, -6.41792566e-02, -5.38767017e-02, ...,
           -1.04978129e-01, -7.44243339e-03, -3.24172042e-02],
          [-1.82407647e-02, -6.27147546e-03, -9.47272107e-02, ...,
           -8.17891583e-02,  2.18828842e-02,  1.83013845e-02],
          [ 6.14831224e-02, -5.87600023e-02, -3.66676785e-02, ...,
           -2.90776379e-02,  9.12611373e-03,  3.91676314e-02],
          ...,
          [-1.14442911e-02, -2.63201594e-02, -7.18579860e-03, ...,
           -9.97579992e-02, -4.62327562e-02, -2.06865314e-02],
          [ 2.52871606e-02,  7.96929896e-02, -7.78206671e-03, ...,
           -2.39889342e-02, -1.70258824e-02,  3.62775885e-02],
          [ 1.26599688e-02,  4.72202674e-02, -2.69492459e-03, ...,
           -4.28310223e-03, -3.23585905e-02,  1.68790128e-02]]],
 
 
        [[[-2.28463504e-02,  2.08863579e-02, -6.40096068e-02, ...,
            4.40983772e-02,  3.76839079e-02, -3.84986848e-02],
          [-3.91635932e-02,  1.99308898e-03,  3.30582485e-02, ...,
            1.81962866e-02, -5.61030395e-03, -3.10556404e-03],
          [ 2.99231019e-02,  3.83516890e-03,  2.45794444e-03, ...,
           -1.65564343e-02,  2.40379246e-03,  3.58246407e-03],
          ...,
          [ 3.78706492e-02, -3.21292579e-02,  2.37134602e-02, ...,
            4.13890146e-02,  5.03749475e-02, -3.01634111e-02],
          [ 2.63045337e-02, -3.80730219e-02,  3.61578800e-02, ...,
            6.91763014e-02,  1.22676166e-02, -1.71184894e-02],
          [-2.93907393e-02, -3.27554792e-02, -2.60738619e-02, ...,
            2.63179932e-02,  1.95156373e-02, -2.45195962e-02]],
 
         [[-4.30679247e-02,  1.19397298e-01, -8.29625279e-02, ...,
           -3.49774666e-04,  1.46522373e-03, -2.88369376e-02],
          [ 1.12226093e-02,  3.63127552e-02,  3.25135812e-02, ...,
           -7.62343854e-02,  4.54927236e-02,  1.89264547e-02],
          [-1.49916450e-03,  6.22125566e-02, -3.36988121e-02, ...,
           -3.89036164e-02,  6.20913729e-02, -3.11236642e-02],
          ...,
          [-2.71682627e-04,  6.31009713e-02,  3.56453396e-02, ...,
            1.31219709e-02,  2.97670979e-02, -2.65099276e-02],
          [ 3.45472842e-02,  4.01630960e-02,  3.15636732e-02, ...,
            2.30528302e-02,  6.63543642e-02,  3.87839827e-04],
          [-3.68413813e-02, -7.13416189e-02, -4.80732769e-02, ...,
            2.26102434e-02,  4.46170457e-02, -2.95517277e-02]],
 
         [[-3.60131264e-02,  6.88485727e-02, -8.18822756e-02, ...,
           -8.78839865e-02, -5.75400330e-02, -1.39908204e-02],
          [-1.04940506e-02,  8.57289508e-03, -6.35017175e-04, ...,
           -5.00974394e-02,  2.71805818e-03, -1.36152990e-02],
          [-3.40589918e-02,  9.56268981e-02, -2.98476801e-03, ...,
           -2.21725926e-02, -9.87961423e-03, -1.57620525e-04],
          ...,
          [-1.55667122e-03,  6.09953441e-02,  3.11342534e-02, ...,
           -5.79960644e-03, -6.43387735e-02, -4.50786017e-02],
          [ 7.04468563e-02,  5.96773066e-02,  1.32446289e-02, ...,
           -3.67262438e-02,  3.84737737e-02,  7.28276279e-03],
          [ 3.92144173e-02, -7.44284689e-02, -2.63355151e-02, ...,
            7.48603744e-03,  5.81241623e-02,  1.52722513e-02]],
 
         [[ 1.23001635e-02,  4.29128632e-02, -3.73658054e-02, ...,
           -5.75213768e-02, -6.29053116e-02,  2.54052095e-02],
          [ 5.34030423e-02,  8.00321158e-03, -2.79787146e-02, ...,
           -1.07078612e-01, -6.34549558e-02, -4.64995317e-02],
          [ 2.31792405e-02, -1.52667090e-02, -5.31081632e-02, ...,
           -4.20318842e-02, -4.84132906e-03,  3.89929600e-02],
          ...,
          [ 1.00659486e-02, -7.44593889e-03, -2.52500584e-04, ...,
           -3.63212824e-02, -7.76652619e-02, -1.78722683e-02],
          [ 6.74597360e-03,  6.47866651e-02, -2.09761187e-02, ...,
           -7.81752989e-02, -2.14549433e-02,  1.56776719e-02],
          [ 1.00597993e-01, -1.81449130e-02,  3.78468186e-02, ...,
            5.84464371e-02,  6.17952831e-02,  3.46045122e-02]],
 
         [[ 7.78387338e-02,  2.95289210e-03, -4.32043597e-02, ...,
           -9.63277146e-02,  1.68004297e-02, -1.09649487e-02],
          [ 1.29296444e-02, -2.15020347e-02, -5.12430780e-02, ...,
           -6.38965517e-03, -3.27995569e-02,  3.29445153e-02],
          [ 5.64535484e-02, -5.48544936e-02, -1.10489093e-02, ...,
            1.83968246e-02, -5.08608930e-02, -1.62719656e-03],
          ...,
          [ 5.15354164e-02,  4.15819362e-02, -1.68793555e-02, ...,
           -9.19598714e-03, -2.98783015e-02, -3.06653269e-02],
          [ 3.21281701e-02,  3.65239754e-03, -4.60158177e-02, ...,
           -4.75898311e-02, -7.07670599e-02, -3.94784249e-02],
          [ 5.32723591e-02,  1.48381796e-02,  2.53069438e-02, ...,
           -1.17909699e-03,  2.20075599e-03,  2.74362732e-02]]]],
       dtype=float32),
 array([-0.0263769 , -0.01502076, -0.07663365, -0.05830649, -0.01090612,
        -0.01700527,  0.01227526, -0.04669321, -0.00585399, -0.03328985,
        -0.0105277 ,  0.00047852, -0.00316222, -0.05064172,  0.02885291,
         0.0004961 ,  0.02780884, -0.0597286 , -0.00530458, -0.02649494,
        -0.04673077,  0.00279919, -0.00667154, -0.01043654, -0.06134303,
        -0.03972298, -0.01825717, -0.04060205, -0.03374751, -0.03159839,
        -0.04027151, -0.02733103, -0.03386557,  0.04055811, -0.04839414,
        -0.01833479, -0.00557803,  0.00269631, -0.06683547, -0.00687473,
        -0.05878358, -0.04332389,  0.00075296, -0.04320594, -0.01022158,
         0.00618587, -0.02123623,  0.0227293 , -0.03177766,  0.01386839,
         0.03526175, -0.00316198, -0.02020507, -0.04755692, -0.0361094 ,
        -0.04628938, -0.08366702, -0.05991951, -0.05956997, -0.01168384,
        -0.02704211, -0.04075249, -0.0354795 , -0.00876093], dtype=float32),
 array([[-0.06916369, -0.09179651, -0.02389877, ...,  0.04726395,
         -0.00553344, -0.06250762],
        [-0.04307804, -0.05964444,  0.05367167, ..., -0.01450519,
          0.0631944 ,  0.00063373],
        [-0.0140317 , -0.01596222,  0.06299125, ..., -0.0207074 ,
          0.03401341, -0.04294503],
        ...,
        [ 0.04355675, -0.05297124, -0.06899448, ...,  0.02102083,
         -0.05654205,  0.04711922],
        [-0.00093236, -0.02070006, -0.01000143, ..., -0.01010471,
         -0.0396166 , -0.0349362 ],
        [ 0.01329296,  0.01516551, -0.02957203, ...,  0.01997994,
         -0.02183785,  0.00834345]], dtype=float32),
 array([ 0.02548002,  0.00756251,  0.01425205,  0.00234159, -0.01390442,
         0.02462409,  0.01276398,  0.01845884, -0.00087229, -0.01079335,
        -0.01737574, -0.01453244, -0.00956385,  0.03326173,  0.02666954,
        -0.02405123,  0.00492544,  0.00404255,  0.00178558,  0.01533297,
         0.02329245, -0.03567794, -0.03874997, -0.01460934,  0.01137774,
        -0.0121188 ,  0.00383995, -0.01442386, -0.0148874 , -0.01631756,
        -0.02080142, -0.00416985, -0.03219556, -0.03958137, -0.01330251,
        -0.01865271], dtype=float32)]